digraph Tree {
node [shape=box] ;
0 [label="X[13] <= 1.278\nmse = 22396776.352\nsamples = 1029\nvalue = 6500.906"] ;
1 [label="X[40] <= 0.5\nmse = 7968261.534\nsamples = 882\nvalue = 4982.189"] ;
0 -> 1 [labeldistance=2.5, labelangle=45, headlabel="True"] ;
2 [label="X[13] <= -0.056\nmse = 5944203.698\nsamples = 855\nvalue = 4721.456"] ;
1 -> 2 ;
3 [label="X[42] <= 0.5\nmse = 2421312.931\nsamples = 445\nvalue = 3530.294"] ;
2 -> 3 ;
4 [label="X[39] <= 0.5\nmse = 1458669.945\nsamples = 364\nvalue = 3077.618"] ;
3 -> 4 ;
5 [label="mse = 910433.969\nsamples = 336\nvalue = 2882.384"] ;
4 -> 5 ;
6 [label="mse = 2091344.173\nsamples = 28\nvalue = 5420.429"] ;
4 -> 6 ;
7 [label="X[13] <= -0.389\nmse = 1688239.705\nsamples = 81\nvalue = 5564.543"] ;
3 -> 7 ;
8 [label="mse = 75379.232\nsamples = 26\nvalue = 4535.808"] ;
7 -> 8 ;
9 [label="mse = 1713898.379\nsamples = 55\nvalue = 6050.855"] ;
7 -> 9 ;
10 [label="X[37] <= 0.5\nmse = 6556388.421\nsamples = 410\nvalue = 6014.302"] ;
2 -> 10 ;
11 [label="X[41] <= 0.5\nmse = 6204538.235\nsamples = 345\nvalue = 6469.406"] ;
10 -> 11 ;
12 [label="mse = 5350829.511\nsamples = 282\nvalue = 7052.727"] ;
11 -> 12 ;
13 [label="mse = 1685200.037\nsamples = 63\nvalue = 3858.349"] ;
11 -> 13 ;
14 [label="X[15] <= -1.5\nmse = 1489701.662\nsamples = 65\nvalue = 3598.754"] ;
10 -> 14 ;
15 [label="mse = 14870.688\nsamples = 4\nvalue = 2157.25"] ;
14 -> 15 ;
16 [label="mse = 1441219.021\nsamples = 61\nvalue = 3693.279"] ;
14 -> 16 ;
17 [label="X[16] <= 0.357\nmse = 1740028.266\nsamples = 27\nvalue = 13238.741"] ;
1 -> 17 ;
18 [label="X[4] <= 0.486\nmse = 1626458.49\nsamples = 10\nvalue = 14312.1"] ;
17 -> 18 ;
19 [label="X[7] <= -0.5\nmse = 32947.959\nsamples = 7\nvalue = 13484.429"] ;
18 -> 19 ;
20 [label="mse = 729.0\nsamples = 2\nvalue = 13218.0"] ;
19 -> 20 ;
21 [label="mse = 6084.4\nsamples = 5\nvalue = 13591.0"] ;
19 -> 21 ;
22 [label="X[11] <= -0.5\nmse = 16560.889\nsamples = 3\nvalue = 16243.333"] ;
18 -> 22 ;
23 [label="mse = 0.0\nsamples = 1\nvalue = 16422.0"] ;
22 -> 23 ;
24 [label="mse = 900.0\nsamples = 2\nvalue = 16154.0"] ;
22 -> 24 ;
25 [label="X[13] <= 0.611\nmse = 730477.522\nsamples = 17\nvalue = 12607.353"] ;
17 -> 25 ;
26 [label="X[1] <= -0.589\nmse = 59967.609\nsamples = 8\nvalue = 11800.125"] ;
25 -> 26 ;
27 [label="mse = 13024.667\nsamples = 3\nvalue = 11539.0"] ;
26 -> 27 ;
28 [label="mse = 22674.56\nsamples = 5\nvalue = 11956.8"] ;
26 -> 28 ;
29 [label="X[2] <= 1.167\nmse = 232413.432\nsamples = 9\nvalue = 13324.889"] ;
25 -> 29 ;
30 [label="mse = 36828.609\nsamples = 8\nvalue = 13482.875"] ;
29 -> 30 ;
31 [label="mse = 0.0\nsamples = 1\nvalue = 12061.0"] ;
29 -> 31 ;
32 [label="X[38] <= 0.5\nmse = 12094887.21\nsamples = 147\nvalue = 15613.204"] ;
0 -> 32 [labeldistance=2.5, labelangle=-45, headlabel="False"] ;
33 [label="X[40] <= 0.5\nmse = 12941022.022\nsamples = 81\nvalue = 13842.951"] ;
32 -> 33 ;
34 [label="X[17] <= 1.7\nmse = 3835633.842\nsamples = 51\nvalue = 11472.373"] ;
33 -> 34 ;
35 [label="X[2] <= 0.208\nmse = 3363575.7\nsamples = 44\nvalue = 11805.068"] ;
34 -> 35 ;
36 [label="mse = 3436527.48\nsamples = 28\nvalue = 11214.143"] ;
35 -> 36 ;
37 [label="mse = 1555420.027\nsamples = 16\nvalue = 12839.188"] ;
35 -> 37 ;
38 [label="X[5] <= -0.75\nmse = 1733871.837\nsamples = 7\nvalue = 9381.143"] ;
34 -> 38 ;
39 [label="mse = 259514.0\nsamples = 3\nvalue = 7918.0"] ;
38 -> 39 ;
40 [label="mse = 29857.25\nsamples = 4\nvalue = 10478.5"] ;
38 -> 40 ;
41 [label="X[2] <= 0.208\nmse = 2626032.596\nsamples = 30\nvalue = 17872.933"] ;
33 -> 41 ;
42 [label="X[13] <= 1.833\nmse = 986991.95\nsamples = 21\nvalue = 18577.952"] ;
41 -> 42 ;
43 [label="mse = 474376.0\nsamples = 10\nvalue = 19198.0"] ;
42 -> 43 ;
44 [label="mse = 785763.471\nsamples = 11\nvalue = 18014.273"] ;
42 -> 44 ;
45 [label="X[1] <= 0.784\nmse = 2584501.877\nsamples = 9\nvalue = 16227.889"] ;
41 -> 45 ;
46 [label="mse = 1360235.938\nsamples = 8\nvalue = 15813.25"] ;
45 -> 46 ;
47 [label="mse = 0.0\nsamples = 1\nvalue = 19545.0"] ;
45 -> 47 ;
48 [label="X[44] <= 0.5\nmse = 2490304.682\nsamples = 66\nvalue = 17785.788"] ;
32 -> 48 ;
49 [label="X[20] <= -0.769\nmse = 1895263.562\nsamples = 51\nvalue = 18081.353"] ;
48 -> 49 ;
50 [label="X[2] <= -0.125\nmse = 118546.889\nsamples = 6\nvalue = 19471.667"] ;
49 -> 50 ;
51 [label="mse = 41616.0\nsamples = 2\nvalue = 19028.0"] ;
50 -> 51 ;
52 [label="mse = 9382.25\nsamples = 4\nvalue = 19693.5"] ;
50 -> 52 ;
53 [label="X[20] <= -0.74\nmse = 1840065.533\nsamples = 45\nvalue = 17895.978"] ;
49 -> 53 ;
54 [label="mse = 470576.5\nsamples = 4\nvalue = 16293.0"] ;
53 -> 54 ;
55 [label="mse = 1698530.378\nsamples = 41\nvalue = 18052.366"] ;
53 -> 55 ;
56 [label="X[20] <= 0.22\nmse = 3206558.249\nsamples = 15\nvalue = 16780.867"] ;
48 -> 56 ;
57 [label="X[30] <= 0.5\nmse = 2087885.359\nsamples = 8\nvalue = 17961.875"] ;
56 -> 57 ;
58 [label="mse = 244035.76\nsamples = 5\nvalue = 18909.2"] ;
57 -> 58 ;
59 [label="mse = 1172414.0\nsamples = 3\nvalue = 16383.0"] ;
57 -> 59 ;
60 [label="X[18] <= -0.167\nmse = 1069252.122\nsamples = 7\nvalue = 15431.143"] ;
56 -> 60 ;
61 [label="mse = 105378.667\nsamples = 3\nvalue = 14300.0"] ;
60 -> 61 ;
62 [label="mse = 112834.25\nsamples = 4\nvalue = 16279.5"] ;
60 -> 62 ;
}
